digraph Tree {
node [shape=box] ;
0 [label="X[1] <= 0.398\nmse = 0.153\nsamples = 2000\nvalue = 0.781"] ;
1 [label="X[0] <= 0.354\nmse = 0.108\nsamples = 1398\nvalue = 0.618"] ;
0 -> 1 [labeldistance=2.5, labelangle=45, headlabel="True"] ;
2 [label="X[1] <= 0.098\nmse = 0.043\nsamples = 946\nvalue = 0.438"] ;
1 -> 2 ;
3 [label="X[0] <= 0.009\nmse = 0.029\nsamples = 735\nvalue = 0.37"] ;
2 -> 3 ;
4 [label="X[1] <= -0.037\nmse = 0.022\nsamples = 544\nvalue = 0.315"] ;
3 -> 4 ;
5 [label="X[1] <= -0.743\nmse = 0.02\nsamples = 473\nvalue = 0.295"] ;
4 -> 5 ;
6 [label="X[0] <= -0.369\nmse = 0.018\nsamples = 134\nvalue = 0.402"] ;
5 -> 6 ;
7 [label="X[1] <= -0.91\nmse = 0.006\nsamples = 85\nvalue = 0.319"] ;
6 -> 7 ;
8 [label="mse = 0.002\nsamples = 37\nvalue = 0.387"] ;
7 -> 8 ;
9 [label="X[0] <= -0.583\nmse = 0.003\nsamples = 48\nvalue = 0.266"] ;
7 -> 9 ;
10 [label="mse = 0.002\nsamples = 27\nvalue = 0.236"] ;
9 -> 10 ;
11 [label="mse = 0.002\nsamples = 21\nvalue = 0.305"] ;
9 -> 11 ;
12 [label="X[0] <= -0.208\nmse = 0.006\nsamples = 49\nvalue = 0.546"] ;
6 -> 12 ;
13 [label="mse = 0.002\nsamples = 25\nvalue = 0.499"] ;
12 -> 13 ;
14 [label="mse = 0.005\nsamples = 24\nvalue = 0.595"] ;
12 -> 14 ;
15 [label="X[0] <= -0.898\nmse = 0.014\nsamples = 339\nvalue = 0.252"] ;
5 -> 15 ;
16 [label="X[1] <= -0.373\nmse = 0.014\nsamples = 40\nvalue = 0.369"] ;
15 -> 16 ;
17 [label="mse = 0.001\nsamples = 20\nvalue = 0.271"] ;
16 -> 17 ;
18 [label="mse = 0.006\nsamples = 20\nvalue = 0.467"] ;
16 -> 18 ;
19 [label="X[1] <= -0.169\nmse = 0.012\nsamples = 299\nvalue = 0.237"] ;
15 -> 19 ;
20 [label="X[1] <= -0.659\nmse = 0.011\nsamples = 246\nvalue = 0.225"] ;
19 -> 20 ;
21 [label="X[0] <= -0.486\nmse = 0.017\nsamples = 48\nvalue = 0.291"] ;
20 -> 21 ;
22 [label="mse = 0.002\nsamples = 20\nvalue = 0.149"] ;
21 -> 22 ;
23 [label="mse = 0.003\nsamples = 28\nvalue = 0.393"] ;
21 -> 23 ;
24 [label="X[0] <= -0.065\nmse = 0.009\nsamples = 198\nvalue = 0.209"] ;
20 -> 24 ;
25 [label="X[0] <= -0.363\nmse = 0.009\nsamples = 178\nvalue = 0.202"] ;
24 -> 25 ;
26 [label="X[1] <= -0.456\nmse = 0.009\nsamples = 106\nvalue = 0.223"] ;
25 -> 26 ;
27 [label="X[0] <= -0.554\nmse = 0.007\nsamples = 50\nvalue = 0.161"] ;
26 -> 27 ;
28 [label="mse = 0.002\nsamples = 30\nvalue = 0.106"] ;
27 -> 28 ;
29 [label="mse = 0.002\nsamples = 20\nvalue = 0.244"] ;
27 -> 29 ;
30 [label="X[0] <= -0.51\nmse = 0.004\nsamples = 56\nvalue = 0.277"] ;
26 -> 30 ;
31 [label="mse = 0.003\nsamples = 36\nvalue = 0.307"] ;
30 -> 31 ;
32 [label="mse = 0.001\nsamples = 20\nvalue = 0.224"] ;
30 -> 32 ;
33 [label="X[1] <= -0.434\nmse = 0.008\nsamples = 72\nvalue = 0.173"] ;
25 -> 33 ;
34 [label="mse = 0.002\nsamples = 31\nvalue = 0.259"] ;
33 -> 34 ;
35 [label="X[0] <= -0.227\nmse = 0.002\nsamples = 41\nvalue = 0.107"] ;
33 -> 35 ;
36 [label="mse = 0.001\nsamples = 20\nvalue = 0.084"] ;
35 -> 36 ;
37 [label="mse = 0.001\nsamples = 21\nvalue = 0.13"] ;
35 -> 37 ;
38 [label="mse = 0.004\nsamples = 20\nvalue = 0.27"] ;
24 -> 38 ;
39 [label="X[0] <= -0.477\nmse = 0.011\nsamples = 53\nvalue = 0.29"] ;
19 -> 39 ;
40 [label="mse = 0.006\nsamples = 21\nvalue = 0.39"] ;
39 -> 40 ;
41 [label="mse = 0.003\nsamples = 32\nvalue = 0.224"] ;
39 -> 41 ;
42 [label="X[0] <= -0.631\nmse = 0.017\nsamples = 71\nvalue = 0.451"] ;
4 -> 42 ;
43 [label="mse = 0.002\nsamples = 22\nvalue = 0.63"] ;
42 -> 43 ;
44 [label="X[1] <= 0.027\nmse = 0.003\nsamples = 49\nvalue = 0.371"] ;
42 -> 44 ;
45 [label="mse = 0.003\nsamples = 21\nvalue = 0.339"] ;
44 -> 45 ;
46 [label="mse = 0.001\nsamples = 28\nvalue = 0.395"] ;
44 -> 46 ;
47 [label="X[1] <= -0.672\nmse = 0.017\nsamples = 191\nvalue = 0.525"] ;
3 -> 47 ;
48 [label="X[1] <= -0.87\nmse = 0.007\nsamples = 43\nvalue = 0.695"] ;
47 -> 48 ;
49 [label="mse = 0.003\nsamples = 20\nvalue = 0.753"] ;
48 -> 49 ;
50 [label="mse = 0.005\nsamples = 23\nvalue = 0.644"] ;
48 -> 50 ;
51 [label="X[0] <= 0.143\nmse = 0.009\nsamples = 148\nvalue = 0.476"] ;
47 -> 51 ;
52 [label="X[0] <= 0.072\nmse = 0.004\nsamples = 56\nvalue = 0.386"] ;
51 -> 52 ;
53 [label="mse = 0.005\nsamples = 27\nvalue = 0.354"] ;
52 -> 53 ;
54 [label="mse = 0.002\nsamples = 29\nvalue = 0.415"] ;
52 -> 54 ;
55 [label="X[0] <= 0.271\nmse = 0.003\nsamples = 92\nvalue = 0.531"] ;
51 -> 55 ;
56 [label="X[0] <= 0.239\nmse = 0.002\nsamples = 57\nvalue = 0.499"] ;
55 -> 56 ;
57 [label="mse = 0.002\nsamples = 37\nvalue = 0.484"] ;
56 -> 57 ;
58 [label="mse = 0.001\nsamples = 20\nvalue = 0.527"] ;
56 -> 58 ;
59 [label="mse = 0.001\nsamples = 35\nvalue = 0.584"] ;
55 -> 59 ;
60 [label="X[0] <= -0.697\nmse = 0.017\nsamples = 211\nvalue = 0.677"] ;
2 -> 60 ;
61 [label="X[1] <= 0.217\nmse = 0.008\nsamples = 58\nvalue = 0.812"] ;
60 -> 61 ;
62 [label="mse = 0.003\nsamples = 27\nvalue = 0.744"] ;
61 -> 62 ;
63 [label="mse = 0.004\nsamples = 31\nvalue = 0.872"] ;
61 -> 63 ;
64 [label="X[1] <= 0.236\nmse = 0.011\nsamples = 153\nvalue = 0.625"] ;
60 -> 64 ;
65 [label="X[0] <= 0.069\nmse = 0.009\nsamples = 65\nvalue = 0.552"] ;
64 -> 65 ;
66 [label="X[0] <= -0.374\nmse = 0.003\nsamples = 44\nvalue = 0.504"] ;
65 -> 66 ;
67 [label="mse = 0.002\nsamples = 20\nvalue = 0.541"] ;
66 -> 67 ;
68 [label="mse = 0.002\nsamples = 24\nvalue = 0.473"] ;
66 -> 68 ;
69 [label="mse = 0.004\nsamples = 21\nvalue = 0.654"] ;
65 -> 69 ;
70 [label="X[0] <= 0.144\nmse = 0.006\nsamples = 88\nvalue = 0.679"] ;
64 -> 70 ;
71 [label="X[1] <= 0.324\nmse = 0.003\nsamples = 66\nvalue = 0.648"] ;
70 -> 71 ;
72 [label="mse = 0.002\nsamples = 35\nvalue = 0.611"] ;
71 -> 72 ;
73 [label="mse = 0.002\nsamples = 31\nvalue = 0.69"] ;
71 -> 73 ;
74 [label="mse = 0.003\nsamples = 22\nvalue = 0.774"] ;
70 -> 74 ;
75 [label="X[0] <= 0.689\nmse = 0.034\nsamples = 452\nvalue = 0.995"] ;
1 -> 75 ;
76 [label="X[0] <= 0.555\nmse = 0.014\nsamples = 241\nvalue = 0.858"] ;
75 -> 76 ;
77 [label="X[1] <= -0.711\nmse = 0.009\nsamples = 149\nvalue = 0.795"] ;
76 -> 77 ;
78 [label="mse = 0.004\nsamples = 34\nvalue = 0.895"] ;
77 -> 78 ;
79 [label="X[1] <= 0.133\nmse = 0.007\nsamples = 115\nvalue = 0.765"] ;
77 -> 79 ;
80 [label="X[0] <= 0.496\nmse = 0.004\nsamples = 89\nvalue = 0.735"] ;
79 -> 80 ;
81 [label="X[0] <= 0.427\nmse = 0.002\nsamples = 63\nvalue = 0.705"] ;
80 -> 81 ;
82 [label="mse = 0.002\nsamples = 36\nvalue = 0.682"] ;
81 -> 82 ;
83 [label="mse = 0.001\nsamples = 27\nvalue = 0.734"] ;
81 -> 83 ;
84 [label="mse = 0.001\nsamples = 26\nvalue = 0.808"] ;
80 -> 84 ;
85 [label="mse = 0.004\nsamples = 26\nvalue = 0.87"] ;
79 -> 85 ;
86 [label="X[1] <= -0.748\nmse = 0.005\nsamples = 92\nvalue = 0.96"] ;
76 -> 86 ;
87 [label="mse = 0.002\nsamples = 20\nvalue = 1.039"] ;
86 -> 87 ;
88 [label="X[1] <= 0.157\nmse = 0.004\nsamples = 72\nvalue = 0.938"] ;
86 -> 88 ;
89 [label="X[0] <= 0.644\nmse = 0.002\nsamples = 52\nvalue = 0.909"] ;
88 -> 89 ;
90 [label="mse = 0.001\nsamples = 28\nvalue = 0.88"] ;
89 -> 90 ;
91 [label="mse = 0.001\nsamples = 24\nvalue = 0.942"] ;
89 -> 91 ;
92 [label="mse = 0.002\nsamples = 20\nvalue = 1.014"] ;
88 -> 92 ;
93 [label="X[0] <= 0.846\nmse = 0.01\nsamples = 211\nvalue = 1.151"] ;
75 -> 93 ;
94 [label="X[1] <= -0.729\nmse = 0.006\nsamples = 103\nvalue = 1.081"] ;
93 -> 94 ;
95 [label="mse = 0.001\nsamples = 23\nvalue = 1.168"] ;
94 -> 95 ;
96 [label="X[1] <= 0.025\nmse = 0.004\nsamples = 80\nvalue = 1.056"] ;
94 -> 96 ;
97 [label="X[0] <= 0.763\nmse = 0.003\nsamples = 59\nvalue = 1.032"] ;
96 -> 97 ;
98 [label="mse = 0.001\nsamples = 24\nvalue = 0.982"] ;
97 -> 98 ;
99 [label="mse = 0.001\nsamples = 35\nvalue = 1.067"] ;
97 -> 99 ;
100 [label="mse = 0.003\nsamples = 21\nvalue = 1.124"] ;
96 -> 100 ;
101 [label="X[0] <= 0.912\nmse = 0.005\nsamples = 108\nvalue = 1.219"] ;
93 -> 101 ;
102 [label="X[1] <= -0.072\nmse = 0.003\nsamples = 52\nvalue = 1.18"] ;
101 -> 102 ;
103 [label="mse = 0.003\nsamples = 32\nvalue = 1.166"] ;
102 -> 103 ;
104 [label="mse = 0.002\nsamples = 20\nvalue = 1.203"] ;
102 -> 104 ;
105 [label="X[0] <= 0.959\nmse = 0.004\nsamples = 56\nvalue = 1.254"] ;
101 -> 105 ;
106 [label="mse = 0.003\nsamples = 31\nvalue = 1.23"] ;
105 -> 106 ;
107 [label="mse = 0.003\nsamples = 25\nvalue = 1.284"] ;
105 -> 107 ;
108 [label="X[0] <= 0.563\nmse = 0.052\nsamples = 602\nvalue = 1.16"] ;
0 -> 108 [labeldistance=2.5, labelangle=-45, headlabel="False"] ;
109 [label="X[1] <= 0.743\nmse = 0.032\nsamples = 465\nvalue = 1.078"] ;
108 -> 109 ;
110 [label="X[1] <= 0.569\nmse = 0.016\nsamples = 270\nvalue = 0.959"] ;
109 -> 110 ;
111 [label="X[0] <= 0.321\nmse = 0.011\nsamples = 138\nvalue = 0.884"] ;
110 -> 111 ;
112 [label="X[0] <= -0.724\nmse = 0.008\nsamples = 116\nvalue = 0.856"] ;
111 -> 112 ;
113 [label="mse = 0.005\nsamples = 22\nvalue = 0.986"] ;
112 -> 113 ;
114 [label="X[1] <= 0.456\nmse = 0.004\nsamples = 94\nvalue = 0.826"] ;
112 -> 114 ;
115 [label="mse = 0.003\nsamples = 32\nvalue = 0.774"] ;
114 -> 115 ;
116 [label="X[0] <= -0.563\nmse = 0.003\nsamples = 62\nvalue = 0.852"] ;
114 -> 116 ;
117 [label="mse = 0.001\nsamples = 20\nvalue = 0.893"] ;
116 -> 117 ;
118 [label="X[0] <= -0.248\nmse = 0.002\nsamples = 42\nvalue = 0.833"] ;
116 -> 118 ;
119 [label="mse = 0.001\nsamples = 22\nvalue = 0.81"] ;
118 -> 119 ;
120 [label="mse = 0.002\nsamples = 20\nvalue = 0.857"] ;
118 -> 120 ;
121 [label="mse = 0.003\nsamples = 22\nvalue = 1.031"] ;
111 -> 121 ;
122 [label="X[0] <= 0.264\nmse = 0.008\nsamples = 132\nvalue = 1.037"] ;
110 -> 122 ;
123 [label="X[0] <= -0.763\nmse = 0.006\nsamples = 112\nvalue = 1.017"] ;
122 -> 123 ;
124 [label="mse = 0.002\nsamples = 20\nvalue = 1.134"] ;
123 -> 124 ;
125 [label="X[1] <= 0.684\nmse = 0.004\nsamples = 92\nvalue = 0.991"] ;
123 -> 125 ;
126 [label="X[1] <= 0.613\nmse = 0.002\nsamples = 59\nvalue = 0.961"] ;
125 -> 126 ;
127 [label="mse = 0.002\nsamples = 20\nvalue = 0.933"] ;
126 -> 127 ;
128 [label="mse = 0.001\nsamples = 39\nvalue = 0.975"] ;
126 -> 128 ;
129 [label="mse = 0.001\nsamples = 33\nvalue = 1.046"] ;
125 -> 129 ;
130 [label="mse = 0.003\nsamples = 20\nvalue = 1.148"] ;
122 -> 130 ;
131 [label="X[1] <= 0.832\nmse = 0.009\nsamples = 195\nvalue = 1.243"] ;
109 -> 131 ;
132 [label="X[0] <= -0.669\nmse = 0.005\nsamples = 69\nvalue = 1.172"] ;
131 -> 132 ;
133 [label="mse = 0.002\nsamples = 20\nvalue = 1.224"] ;
132 -> 133 ;
134 [label="X[0] <= 0.121\nmse = 0.005\nsamples = 49\nvalue = 1.151"] ;
132 -> 134 ;
135 [label="mse = 0.001\nsamples = 29\nvalue = 1.106"] ;
134 -> 135 ;
136 [label="mse = 0.003\nsamples = 20\nvalue = 1.216"] ;
134 -> 136 ;
137 [label="X[0] <= 0.199\nmse = 0.006\nsamples = 126\nvalue = 1.283"] ;
131 -> 137 ;
138 [label="X[0] <= -0.69\nmse = 0.005\nsamples = 102\nvalue = 1.262"] ;
137 -> 138 ;
139 [label="mse = 0.002\nsamples = 30\nvalue = 1.347"] ;
138 -> 139 ;
140 [label="X[1] <= 0.926\nmse = 0.002\nsamples = 72\nvalue = 1.226"] ;
138 -> 140 ;
141 [label="X[1] <= 0.887\nmse = 0.001\nsamples = 41\nvalue = 1.197"] ;
140 -> 141 ;
142 [label="mse = 0.001\nsamples = 21\nvalue = 1.177"] ;
141 -> 142 ;
143 [label="mse = 0.0\nsamples = 20\nvalue = 1.217"] ;
141 -> 143 ;
144 [label="mse = 0.001\nsamples = 31\nvalue = 1.266"] ;
140 -> 144 ;
145 [label="mse = 0.003\nsamples = 24\nvalue = 1.371"] ;
137 -> 145 ;
146 [label="X[1] <= 0.587\nmse = 0.021\nsamples = 137\nvalue = 1.437"] ;
108 -> 146 ;
147 [label="mse = 0.01\nsamples = 38\nvalue = 1.273"] ;
146 -> 147 ;
148 [label="X[1] <= 0.797\nmse = 0.01\nsamples = 99\nvalue = 1.5"] ;
146 -> 148 ;
149 [label="X[0] <= 0.79\nmse = 0.008\nsamples = 52\nvalue = 1.445"] ;
148 -> 149 ;
150 [label="mse = 0.003\nsamples = 21\nvalue = 1.359"] ;
149 -> 150 ;
151 [label="mse = 0.002\nsamples = 31\nvalue = 1.503"] ;
149 -> 151 ;
152 [label="X[0] <= 0.744\nmse = 0.006\nsamples = 47\nvalue = 1.561"] ;
148 -> 152 ;
153 [label="mse = 0.003\nsamples = 24\nvalue = 1.508"] ;
152 -> 153 ;
154 [label="mse = 0.003\nsamples = 23\nvalue = 1.616"] ;
152 -> 154 ;
}